digraph Tree {
node [shape=box, style="filled", color="black"] ;
0 [label="X[0] <= -1.557\ngini = 0.75\nsamples = 313\nvalue = [78, 77, 76, 82]", fillcolor="#d739e504"] ;
1 [label="X[1] <= -0.193\ngini = 0.691\nsamples = 31\nvalue = [7, 4, 14, 6]", fillcolor="#399de54a"] ;
0 -> 1 [labeldistance=2.5, labelangle=45, headlabel="True"] ;
2 [label="X[1] <= -1.034\ngini = 0.497\nsamples = 13\nvalue = [7, 0, 0, 6]", fillcolor="#e5813924"] ;
1 -> 2 ;
3 [label="X[0] <= -1.738\ngini = 0.219\nsamples = 8\nvalue = [7, 0, 0, 1]", fillcolor="#e58139db"] ;
2 -> 3 ;
4 [label="gini = 0.0\nsamples = 6\nvalue = [6, 0, 0, 0]", fillcolor="#e58139ff"] ;
3 -> 4 ;
5 [label="X[1] <= -1.101\ngini = 0.5\nsamples = 2\nvalue = [1, 0, 0, 1]", fillcolor="#e5813900"] ;
3 -> 5 ;
6 [label="gini = 0.0\nsamples = 1\nvalue = [0, 0, 0, 1]", fillcolor="#d739e5ff"] ;
5 -> 6 ;
7 [label="gini = 0.0\nsamples = 1\nvalue = [1, 0, 0, 0]", fillcolor="#e58139ff"] ;
5 -> 7 ;
8 [label="gini = 0.0\nsamples = 5\nvalue = [0, 0, 0, 5]", fillcolor="#d739e5ff"] ;
2 -> 8 ;
9 [label="X[1] <= 1.053\ngini = 0.346\nsamples = 18\nvalue = [0, 4, 14, 0]", fillcolor="#399de5b6"] ;
1 -> 9 ;
10 [label="gini = 0.0\nsamples = 14\nvalue = [0, 0, 14, 0]", fillcolor="#399de5ff"] ;
9 -> 10 ;
11 [label="gini = 0.0\nsamples = 4\nvalue = [0, 4, 0, 0]", fillcolor="#47e539ff"] ;
9 -> 11 ;
12 [label="X[1] <= 0.615\ngini = 0.749\nsamples = 282\nvalue = [71, 73, 62, 76]", fillcolor="#d739e504"] ;
0 -> 12 [labeldistance=2.5, labelangle=-45, headlabel="False"] ;
13 [label="X[0] <= -0.198\ngini = 0.744\nsamples = 180\nvalue = [39, 54, 37, 50]", fillcolor="#47e53908"] ;
12 -> 13 ;
14 [label="X[1] <= -0.922\ngini = 0.678\nsamples = 78\nvalue = [31, 16, 4, 27]", fillcolor="#e5813914"] ;
13 -> 14 ;
15 [label="X[0] <= -1.014\ngini = 0.498\nsamples = 30\nvalue = [14, 16, 0, 0]", fillcolor="#47e53920"] ;
14 -> 15 ;
16 [label="gini = 0.0\nsamples = 13\nvalue = [13, 0, 0, 0]", fillcolor="#e58139ff"] ;
15 -> 16 ;
17 [label="X[1] <= -1.04\ngini = 0.111\nsamples = 17\nvalue = [1, 16, 0, 0]", fillcolor="#47e539ef"] ;
15 -> 17 ;
18 [label="gini = 0.0\nsamples = 16\nvalue = [0, 16, 0, 0]", fillcolor="#47e539ff"] ;
17 -> 18 ;
19 [label="gini = 0.0\nsamples = 1\nvalue = [1, 0, 0, 0]", fillcolor="#e58139ff"] ;
17 -> 19 ;
20 [label="X[1] <= -0.038\ngini = 0.551\nsamples = 48\nvalue = [17, 0, 4, 27]", fillcolor="#d739e552"] ;
14 -> 20 ;
21 [label="X[0] <= -0.925\ngini = 0.522\nsamples = 31\nvalue = [17, 0, 1, 13]", fillcolor="#e5813939"] ;
20 -> 21 ;
22 [label="X[1] <= -0.094\ngini = 0.32\nsamples = 16\nvalue = [2, 0, 1, 13]", fillcolor="#d739e5c8"] ;
21 -> 22 ;
23 [label="X[0] <= -1.548\ngini = 0.133\nsamples = 14\nvalue = [1, 0, 0, 13]", fillcolor="#d739e5eb"] ;
22 -> 23 ;
24 [label="gini = 0.0\nsamples = 1\nvalue = [1, 0, 0, 0]", fillcolor="#e58139ff"] ;
23 -> 24 ;
25 [label="gini = 0.0\nsamples = 13\nvalue = [0, 0, 0, 13]", fillcolor="#d739e5ff"] ;
23 -> 25 ;
26 [label="X[0] <= -1.11\ngini = 0.5\nsamples = 2\nvalue = [1, 0, 1, 0]", fillcolor="#e5813900"] ;
22 -> 26 ;
27 [label="gini = 0.0\nsamples = 1\nvalue = [0, 0, 1, 0]", fillcolor="#399de5ff"] ;
26 -> 27 ;
28 [label="gini = 0.0\nsamples = 1\nvalue = [1, 0, 0, 0]", fillcolor="#e58139ff"] ;
26 -> 28 ;
29 [label="gini = 0.0\nsamples = 15\nvalue = [15, 0, 0, 0]", fillcolor="#e58139ff"] ;
21 -> 29 ;
30 [label="X[0] <= -0.948\ngini = 0.291\nsamples = 17\nvalue = [0, 0, 3, 14]", fillcolor="#d739e5c8"] ;
20 -> 30 ;
31 [label="X[1] <= 0.311\ngini = 0.375\nsamples = 4\nvalue = [0, 0, 3, 1]", fillcolor="#399de5aa"] ;
30 -> 31 ;
32 [label="gini = 0.0\nsamples = 2\nvalue = [0, 0, 2, 0]", fillcolor="#399de5ff"] ;
31 -> 32 ;
33 [label="X[0] <= -1.1\ngini = 0.5\nsamples = 2\nvalue = [0, 0, 1, 1]", fillcolor="#399de500"] ;
31 -> 33 ;
34 [label="gini = 0.0\nsamples = 1\nvalue = [0, 0, 0, 1]", fillcolor="#d739e5ff"] ;
33 -> 34 ;
35 [label="gini = 0.0\nsamples = 1\nvalue = [0, 0, 1, 0]", fillcolor="#399de5ff"] ;
33 -> 35 ;
36 [label="gini = 0.0\nsamples = 13\nvalue = [0, 0, 0, 13]", fillcolor="#d739e5ff"] ;
30 -> 36 ;
37 [label="X[1] <= -0.678\ngini = 0.7\nsamples = 102\nvalue = [8, 38, 33, 23]", fillcolor="#47e53912"] ;
13 -> 37 ;
38 [label="X[0] <= 1.065\ngini = 0.628\nsamples = 56\nvalue = [0, 10, 25, 21]", fillcolor="#399de51d"] ;
37 -> 38 ;
39 [label="X[0] <= 0.014\ngini = 0.486\nsamples = 24\nvalue = [0, 10, 14, 0]", fillcolor="#399de549"] ;
38 -> 39 ;
40 [label="gini = 0.0\nsamples = 7\nvalue = [0, 7, 0, 0]", fillcolor="#47e539ff"] ;
39 -> 40 ;
41 [label="X[1] <= -1.067\ngini = 0.291\nsamples = 17\nvalue = [0, 3, 14, 0]", fillcolor="#399de5c8"] ;
39 -> 41 ;
42 [label="gini = 0.0\nsamples = 14\nvalue = [0, 0, 14, 0]", fillcolor="#399de5ff"] ;
41 -> 42 ;
43 [label="gini = 0.0\nsamples = 3\nvalue = [0, 3, 0, 0]", fillcolor="#47e539ff"] ;
41 -> 43 ;
44 [label="X[1] <= -0.999\ngini = 0.451\nsamples = 32\nvalue = [0, 0, 11, 21]", fillcolor="#d739e579"] ;
38 -> 44 ;
45 [label="X[0] <= 1.135\ngini = 0.087\nsamples = 22\nvalue = [0, 0, 1, 21]", fillcolor="#d739e5f3"] ;
44 -> 45 ;
46 [label="X[1] <= -1.429\ngini = 0.444\nsamples = 3\nvalue = [0, 0, 1, 2]", fillcolor="#d739e57f"] ;
45 -> 46 ;
47 [label="gini = 0.0\nsamples = 2\nvalue = [0, 0, 0, 2]", fillcolor="#d739e5ff"] ;
46 -> 47 ;
48 [label="gini = 0.0\nsamples = 1\nvalue = [0, 0, 1, 0]", fillcolor="#399de5ff"] ;
46 -> 48 ;
49 [label="gini = 0.0\nsamples = 19\nvalue = [0, 0, 0, 19]", fillcolor="#d739e5ff"] ;
45 -> 49 ;
50 [label="gini = 0.0\nsamples = 10\nvalue = [0, 0, 10, 0]", fillcolor="#399de5ff"] ;
44 -> 50 ;
51 [label="X[0] <= 1.092\ngini = 0.567\nsamples = 46\nvalue = [8, 28, 8, 2]", fillcolor="#47e53986"] ;
37 -> 51 ;
52 [label="X[1] <= 0.001\ngini = 0.542\nsamples = 24\nvalue = [8, 14, 0, 2]", fillcolor="#47e53960"] ;
51 -> 52 ;
53 [label="X[0] <= 0.167\ngini = 0.133\nsamples = 14\nvalue = [1, 13, 0, 0]", fillcolor="#47e539eb"] ;
52 -> 53 ;
54 [label="X[1] <= -0.348\ngini = 0.5\nsamples = 2\nvalue = [1, 1, 0, 0]", fillcolor="#e5813900"] ;
53 -> 54 ;
55 [label="gini = 0.0\nsamples = 1\nvalue = [0, 1, 0, 0]", fillcolor="#47e539ff"] ;
54 -> 55 ;
56 [label="gini = 0.0\nsamples = 1\nvalue = [1, 0, 0, 0]", fillcolor="#e58139ff"] ;
54 -> 56 ;
57 [label="gini = 0.0\nsamples = 12\nvalue = [0, 12, 0, 0]", fillcolor="#47e539ff"] ;
53 -> 57 ;
58 [label="X[0] <= 0.012\ngini = 0.46\nsamples = 10\nvalue = [7, 1, 0, 2]", fillcolor="#e581399f"] ;
52 -> 58 ;
59 [label="gini = 0.0\nsamples = 2\nvalue = [0, 0, 0, 2]", fillcolor="#d739e5ff"] ;
58 -> 59 ;
60 [label="X[0] <= 0.919\ngini = 0.219\nsamples = 8\nvalue = [7, 1, 0, 0]", fillcolor="#e58139db"] ;
58 -> 60 ;
61 [label="gini = 0.0\nsamples = 5\nvalue = [5, 0, 0, 0]", fillcolor="#e58139ff"] ;
60 -> 61 ;
62 [label="X[0] <= 0.997\ngini = 0.444\nsamples = 3\nvalue = [2, 1, 0, 0]", fillcolor="#e581397f"] ;
60 -> 62 ;
63 [label="gini = 0.0\nsamples = 1\nvalue = [0, 1, 0, 0]", fillcolor="#47e539ff"] ;
62 -> 63 ;
64 [label="gini = 0.0\nsamples = 2\nvalue = [2, 0, 0, 0]", fillcolor="#e58139ff"] ;
62 -> 64 ;
65 [label="X[1] <= 0.001\ngini = 0.463\nsamples = 22\nvalue = [0, 14, 8, 0]", fillcolor="#47e5396d"] ;
51 -> 65 ;
66 [label="gini = 0.0\nsamples = 7\nvalue = [0, 0, 7, 0]", fillcolor="#399de5ff"] ;
65 -> 66 ;
67 [label="X[1] <= 0.089\ngini = 0.124\nsamples = 15\nvalue = [0, 14, 1, 0]", fillcolor="#47e539ed"] ;
65 -> 67 ;
68 [label="X[1] <= 0.071\ngini = 0.444\nsamples = 3\nvalue = [0, 2, 1, 0]", fillcolor="#47e5397f"] ;
67 -> 68 ;
69 [label="gini = 0.0\nsamples = 2\nvalue = [0, 2, 0, 0]", fillcolor="#47e539ff"] ;
68 -> 69 ;
70 [label="gini = 0.0\nsamples = 1\nvalue = [0, 0, 1, 0]", fillcolor="#399de5ff"] ;
68 -> 70 ;
71 [label="gini = 0.0\nsamples = 12\nvalue = [0, 12, 0, 0]", fillcolor="#47e539ff"] ;
67 -> 71 ;
72 [label="X[0] <= 0.119\ngini = 0.742\nsamples = 102\nvalue = [32, 19, 25, 26]", fillcolor="#e5813914"] ;
12 -> 72 ;
73 [label="X[0] <= -0.885\ngini = 0.621\nsamples = 47\nvalue = [2, 12, 25, 8]", fillcolor="#399de55f"] ;
72 -> 73 ;
74 [label="X[1] <= 1.147\ngini = 0.526\nsamples = 21\nvalue = [0, 12, 8, 1]", fillcolor="#47e5394e"] ;
73 -> 74 ;
75 [label="X[0] <= -1.036\ngini = 0.406\nsamples = 8\nvalue = [0, 1, 6, 1]", fillcolor="#399de5b6"] ;
74 -> 75 ;
76 [label="gini = 0.0\nsamples = 6\nvalue = [0, 0, 6, 0]", fillcolor="#399de5ff"] ;
75 -> 76 ;
77 [label="X[0] <= -1.006\ngini = 0.5\nsamples = 2\nvalue = [0, 1, 0, 1]", fillcolor="#47e53900"] ;
75 -> 77 ;
78 [label="gini = 0.0\nsamples = 1\nvalue = [0, 1, 0, 0]", fillcolor="#47e539ff"] ;
77 -> 78 ;
79 [label="gini = 0.0\nsamples = 1\nvalue = [0, 0, 0, 1]", fillcolor="#d739e5ff"] ;
77 -> 79 ;
80 [label="X[0] <= -1.133\ngini = 0.26\nsamples = 13\nvalue = [0, 11, 2, 0]", fillcolor="#47e539d1"] ;
74 -> 80 ;
81 [label="gini = 0.0\nsamples = 8\nvalue = [0, 8, 0, 0]", fillcolor="#47e539ff"] ;
80 -> 81 ;
82 [label="X[0] <= -0.931\ngini = 0.48\nsamples = 5\nvalue = [0, 3, 2, 0]", fillcolor="#47e53955"] ;
80 -> 82 ;
83 [label="X[1] <= 1.369\ngini = 0.444\nsamples = 3\nvalue = [0, 1, 2, 0]", fillcolor="#399de57f"] ;
82 -> 83 ;
84 [label="gini = 0.0\nsamples = 1\nvalue = [0, 1, 0, 0]", fillcolor="#47e539ff"] ;
83 -> 84 ;
85 [label="gini = 0.0\nsamples = 2\nvalue = [0, 0, 2, 0]", fillcolor="#399de5ff"] ;
83 -> 85 ;
86 [label="gini = 0.0\nsamples = 2\nvalue = [0, 2, 0, 0]", fillcolor="#47e539ff"] ;
82 -> 86 ;
87 [label="X[1] <= 1.027\ngini = 0.494\nsamples = 26\nvalue = [2, 0, 17, 7]", fillcolor="#399de586"] ;
73 -> 87 ;
88 [label="X[0] <= -0.049\ngini = 0.408\nsamples = 7\nvalue = [2, 0, 0, 5]", fillcolor="#d739e599"] ;
87 -> 88 ;
89 [label="gini = 0.0\nsamples = 4\nvalue = [0, 0, 0, 4]", fillcolor="#d739e5ff"] ;
88 -> 89 ;
90 [label="X[1] <= 0.844\ngini = 0.444\nsamples = 3\nvalue = [2, 0, 0, 1]", fillcolor="#e581397f"] ;
88 -> 90 ;
91 [label="gini = 0.0\nsamples = 2\nvalue = [2, 0, 0, 0]", fillcolor="#e58139ff"] ;
90 -> 91 ;
92 [label="gini = 0.0\nsamples = 1\nvalue = [0, 0, 0, 1]", fillcolor="#d739e5ff"] ;
90 -> 92 ;
93 [label="X[0] <= -0.114\ngini = 0.188\nsamples = 19\nvalue = [0, 0, 17, 2]", fillcolor="#399de5e1"] ;
87 -> 93 ;
94 [label="gini = 0.0\nsamples = 13\nvalue = [0, 0, 13, 0]", fillcolor="#399de5ff"] ;
93 -> 94 ;
95 [label="X[1] <= 1.419\ngini = 0.444\nsamples = 6\nvalue = [0, 0, 4, 2]", fillcolor="#399de57f"] ;
93 -> 95 ;
96 [label="gini = 0.0\nsamples = 3\nvalue = [0, 0, 3, 0]", fillcolor="#399de5ff"] ;
95 -> 96 ;
97 [label="X[1] <= 1.976\ngini = 0.444\nsamples = 3\nvalue = [0, 0, 1, 2]", fillcolor="#d739e57f"] ;
95 -> 97 ;
98 [label="gini = 0.0\nsamples = 2\nvalue = [0, 0, 0, 2]", fillcolor="#d739e5ff"] ;
97 -> 98 ;
99 [label="gini = 0.0\nsamples = 1\nvalue = [0, 0, 1, 0]", fillcolor="#399de5ff"] ;
97 -> 99 ;
100 [label="X[0] <= 0.974\ngini = 0.579\nsamples = 55\nvalue = [30, 7, 0, 18]", fillcolor="#e5813953"] ;
72 -> 100 ;
101 [label="X[1] <= 0.937\ngini = 0.444\nsamples = 27\nvalue = [9, 0, 0, 18]", fillcolor="#d739e57f"] ;
100 -> 101 ;
102 [label="gini = 0.0\nsamples = 9\nvalue = [9, 0, 0, 0]", fillcolor="#e58139ff"] ;
101 -> 102 ;
103 [label="gini = 0.0\nsamples = 18\nvalue = [0, 0, 0, 18]", fillcolor="#d739e5ff"] ;
101 -> 103 ;
104 [label="X[1] <= 1.071\ngini = 0.375\nsamples = 28\nvalue = [21, 7, 0, 0]", fillcolor="#e58139aa"] ;
100 -> 104 ;
105 [label="X[1] <= 0.943\ngini = 0.42\nsamples = 10\nvalue = [3, 7, 0, 0]", fillcolor="#47e53992"] ;
104 -> 105 ;
106 [label="gini = 0.0\nsamples = 4\nvalue = [0, 4, 0, 0]", fillcolor="#47e539ff"] ;
105 -> 106 ;
107 [label="X[1] <= 1.044\ngini = 0.5\nsamples = 6\nvalue = [3, 3, 0, 0]", fillcolor="#e5813900"] ;
105 -> 107 ;
108 [label="gini = 0.0\nsamples = 3\nvalue = [3, 0, 0, 0]", fillcolor="#e58139ff"] ;
107 -> 108 ;
109 [label="gini = 0.0\nsamples = 3\nvalue = [0, 3, 0, 0]", fillcolor="#47e539ff"] ;
107 -> 109 ;
110 [label="gini = 0.0\nsamples = 18\nvalue = [18, 0, 0, 0]", fillcolor="#e58139ff"] ;
104 -> 110 ;
}